<?xml version="1.0"?>
<opencv_storage>
<cascade>
  <stageType>BOOST</stageType>
  <featureType>HAAR</featureType>
  <height>20</height>
  <width>20</width>
  <stageParams>
    <boostType>GAB</boostType>
    <minHitRate>9.9500000476837158e-01</minHitRate>
    <maxFalseAlarm>5.0000000000000000e-01</maxFalseAlarm>
    <weightTrimRate>9.4999999999999996e-01</weightTrimRate>
    <maxDepth>1</maxDepth>
    <maxWeakCount>100</maxWeakCount></stageParams>
  <featureParams>
    <maxCatCount>0</maxCatCount>
    <featSize>1</featSize>
    <mode>BASIC</mode></featureParams>
  <stageNum>9</stageNum>
  <stages>
    <!-- stage 0 -->
    <_>
      <maxWeakCount>4</maxWeakCount>
      <stageThreshold>-4.3454957008361816e-01</stageThreshold>
      <weakClassifiers>
        <_>
          <internalNodes>
            0 -1 43 1.3866266235709190e-02</internalNodes>
          <leafValues>
            -5.9628772735595703e-01 7.0514601469039917e-01</leafValues></_>
        <_>
          <internalNodes>
            0 -1 15 -2.6849746704101562e-02</internalNodes>
          <leafValues>
            7.1540087461471558e-01 -3.8633620738983154e-01</leafValues></_>
        <_>
          <internalNodes>
            0 -1 18 -2.3230127408169210e-04</internalNodes>
          <leafValues>
            -9.2588275671005249e-01 3.0338123440742493e-01</leafValues></_>
        <_>
          <internalNodes>
            0 -1 26 3.9898930117487907e-03</internalNodes>
          <leafValues>
            3.7360703945159912e-01 -8.5704398155212402e-01</leafValues></_></weakClassifiers></_>
    <!-- stage 1 -->
    <_>
      <maxWeakCount>8</maxWeakCount>
      <stageThreshold>-9.1008359193801880e-01</stageThreshold>
      <weakClassifiers>
        <_>
          <internalNodes>
            0 -1 54 4.1247969493269920e-03</internalNodes>
          <leafValues>
            -5.2242422103881836e-01 6.3118642568588257e-01</leafValues></_>
        <_>
          <internalNodes>
            0 -1 36 1.1092069325968623e-03</internalNodes>
          <leafValues>
            -4.2378872632980347e-01 5.9503561258316040e-01</leafValues></_>
        <_>
          <internalNodes>
            0 -1 20 -1.5048285946249962e-02</internalNodes>
          <leafValues>
            -9.0964025259017944e-01 2.5685411691665649e-01</leafValues></_>
        <_>
          <internalNodes>
            0 -1 14 -1.2273643165826797e-02</internalNodes>
          <leafValues>
            4.0324679017066956e-01 -5.4566115140914917e-01</leafValues></_>
        <_>
          <internalNodes>
            0 -1 27 9.4001656398177147e-03</internalNodes>
          <leafValues>
            1.9945971667766571e-01 -9.6147078275680542e-01</leafValues></_>
        <_>
          <internalNodes>
            0 -1 26 2.9778206953778863e-04</internalNodes>
          <leafValues>
            -8.6810153722763062e-01 2.3769380152225494e-01</leafValues></_>
        <_>
          <internalNodes>
            0 -1 28 -4.2066740570589900e-04</internalNodes>
          <leafValues>
            4.3151864409446716e-01 -5.1185691356658936e-01</leafValues></_>
        <_>
          <internalNodes>
            0 -1 22 -4.1168639436364174e-03</internalNodes>
          <leafValues>
            6.1722618341445923e-01 -3.4403061866760254e-01</leafValues></_></weakClassifiers></_>
    <!-- stage 2 -->
    <_>
      <maxWeakCount>7</maxWeakCount>
      <stageThreshold>-7.4438071250915527e-01</stageThreshold>
      <weakClassifiers>
        <_>
          <internalNodes>
            0 -1 11 4.2032981291413307e-03</internalNodes>
          <leafValues>
            -3.9837399125099182e-01 6.7781156301498413e-01</leafValues></_>
        <_>
          <internalNodes>
            0 -1 37 2.0659811794757843e-02</internalNodes>
          <leafValues>
            -3.3370575308799744e-01 6.3272464275360107e-01</leafValues></_>
        <_>
          <internalNodes>
            0 -1 44 3.2616907265037298e-04</internalNodes>
          <leafValues>
            3.6451506614685059e-01 -6.6279596090316772e-01</leafValues></_>
        <_>
          <internalNodes>
            0 -1 34 1.1352387256920338e-02</internalNodes>
          <leafValues>
            2.3148764669895172e-01 -8.7195515632629395e-01</leafValues></_>
        <_>
          <internalNodes>
            0 -1 17 -3.1644299626350403e-02</internalNodes>
          <leafValues>
            -9.5194214582443237e-01 1.8676270544528961e-01</leafValues></_>
        <_>
          <internalNodes>
            0 -1 63 2.6186913601122797e-04</internalNodes>
          <leafValues>
            1.6182723641395569e-01 -7.9176920652389526e-01</leafValues></_>
        <_>
          <internalNodes>
            0 -1 25 2.5264194700866938e-03</internalNodes>
          <leafValues>
            1.4654923975467682e-01 -9.0395247936248779e-01</leafValues></_></weakClassifiers></_>
    <!-- stage 3 -->
    <_>
      <maxWeakCount>7</maxWeakCount>
      <stageThreshold>-9.2033135890960693e-01</stageThreshold>
      <weakClassifiers>
        <_>
          <internalNodes>
            0 -1 21 2.6386052370071411e-02</internalNodes>
          <leafValues>
            -2.6016259193420410e-01 7.6635515689849854e-01</leafValues></_>
        <_>
          <internalNodes>
            0 -1 4 7.1907823439687490e-04</internalNodes>
          <leafValues>
            -4.0533149242401123e-01 5.4018867015838623e-01</leafValues></_>
        <_>
          <internalNodes>
            0 -1 38 9.0857818722724915e-03</internalNodes>
          <leafValues>
            -2.5235459208488464e-01 7.7313894033432007e-01</leafValues></_>
        <_>
          <internalNodes>
            0 -1 32 -2.5532774161547422e-03</internalNodes>
          <leafValues>
            -9.0410757064819336e-01 2.2173908352851868e-01</leafValues></_>
        <_>
          <internalNodes>
            0 -1 45 6.4919564465526491e-05</internalNodes>
          <leafValues>
            -7.3503446578979492e-01 2.9014635086059570e-01</leafValues></_>
        <_>
          <internalNodes>
            0 -1 18 3.1721158884465694e-03</internalNodes>
          <leafValues>
            1.9316144287586212e-01 -7.7127605676651001e-01</leafValues></_>
        <_>
          <internalNodes>
            0 -1 9 5.0986323913093656e-05</internalNodes>
          <leafValues>
            -5.8325594663619995e-01 3.1765124201774597e-01</leafValues></_></weakClassifiers></_>
    <!-- stage 4 -->
    <_>
      <maxWeakCount>10</maxWeakCount>
      <stageThreshold>-1.2362320423126221e+00</stageThreshold>
      <weakClassifiers>
        <_>
          <internalNodes>
            0 -1 39 1.4506152831017971e-02</internalNodes>
          <leafValues>
            -4.5054945349693298e-01 5.8676570653915405e-01</leafValues></_>
        <_>
          <internalNodes>
            0 -1 41 1.3984604738652706e-03</internalNodes>
          <leafValues>
            -3.4721696376800537e-01 5.6377762556076050e-01</leafValues></_>
        <_>
          <internalNodes>
            0 -1 48 -3.1582545489072800e-04</internalNodes>
          <leafValues>
            -9.1029030084609985e-01 2.2890925407409668e-01</leafValues></_>
        <_>
          <internalNodes>
            0 -1 65 -6.2212361954152584e-03</internalNodes>
          <leafValues>
            7.1852338314056396e-01 -2.9923346638679504e-01</leafValues></_>
        <_>
          <internalNodes>
            0 -1 51 -1.8015518435277045e-05</internalNodes>
          <leafValues>
            -7.1672219038009644e-01 2.5279062986373901e-01</leafValues></_>
        <_>
          <internalNodes>
            0 -1 2 -2.1511744707822800e-03</internalNodes>
          <leafValues>
            4.6523067355155945e-01 -3.9003396034240723e-01</leafValues></_>
        <_>
          <internalNodes>
            0 -1 1 8.1321978941559792e-03</internalNodes>
          <leafValues>
            -2.5290772318840027e-01 7.8685313463211060e-01</leafValues></_>
        <_>
          <internalNodes>
            0 -1 52 3.4846336347982287e-04</internalNodes>
          <leafValues>
            2.5796878337860107e-01 -7.7201521396636963e-01</leafValues></_>
        <_>
          <internalNodes>
            0 -1 55 -1.7963893478736281e-03</internalNodes>
          <leafValues>
            4.8694103956222534e-01 -3.6909243464469910e-01</leafValues></_>
        <_>
          <internalNodes>
            0 -1 10 -3.6922775208950043e-02</internalNodes>
          <leafValues>
            -8.3269131183624268e-01 1.9165158271789551e-01</leafValues></_></weakClassifiers></_>
    <!-- stage 5 -->
    <_>
      <maxWeakCount>8</maxWeakCount>
      <stageThreshold>-8.2455527782440186e-01</stageThreshold>
      <weakClassifiers>
        <_>
          <internalNodes>
            0 -1 56 4.6897251158952713e-03</internalNodes>
          <leafValues>
            -4.7642681002616882e-01 5.9170013666152954e-01</leafValues></_>
        <_>
          <internalNodes>
            0 -1 13 9.0679824352264404e-03</internalNodes>
          <leafValues>
            -3.4756442904472351e-01 5.3901946544647217e-01</leafValues></_>
        <_>
          <internalNodes>
            0 -1 26 4.2594951810315251e-04</internalNodes>
          <leafValues>
            -8.0489027500152588e-01 2.3607154190540314e-01</leafValues></_>
        <_>
          <internalNodes>
            0 -1 59 -3.5994793288409710e-03</internalNodes>
          <leafValues>
            -7.4734652042388916e-01 2.2926083207130432e-01</leafValues></_>
        <_>
          <internalNodes>
            0 -1 66 -4.0174415335059166e-03</internalNodes>
          <leafValues>
            5.6054121255874634e-01 -3.1230428814888000e-01</leafValues></_>
        <_>
          <internalNodes>
            0 -1 64 -5.3091149311512709e-05</internalNodes>
          <leafValues>
            2.5765311717987061e-01 -5.7282900810241699e-01</leafValues></_>
        <_>
          <internalNodes>
            0 -1 29 -6.5978141501545906e-03</internalNodes>
          <leafValues>
            5.2457571029663086e-01 -3.2305240631103516e-01</leafValues></_>
        <_>
          <internalNodes>
            0 -1 46 1.1803689412772655e-03</internalNodes>
          <leafValues>
            1.7202632129192352e-01 -9.3582093715667725e-01</leafValues></_></weakClassifiers></_>
    <!-- stage 6 -->
    <_>
      <maxWeakCount>8</maxWeakCount>
      <stageThreshold>-7.0607191324234009e-01</stageThreshold>
      <weakClassifiers>
        <_>
          <internalNodes>
            0 -1 33 -4.1416999883949757e-03</internalNodes>
          <leafValues>
            5.7006800174713135e-01 -4.0722891688346863e-01</leafValues></_>
        <_>
          <internalNodes>
            0 -1 49 -7.3453038930892944e-04</internalNodes>
          <leafValues>
            -7.3159390687942505e-01 3.2273074984550476e-01</leafValues></_>
        <_>
          <internalNodes>
            0 -1 50 -4.4190175831317902e-03</internalNodes>
          <leafValues>
            6.9652926921844482e-01 -3.1227010488510132e-01</leafValues></_>
        <_>
          <internalNodes>
            0 -1 12 -7.5217662379145622e-03</internalNodes>
          <leafValues>
            5.3355252742767334e-01 -3.6171418428421021e-01</leafValues></_>
        <_>
          <internalNodes>
            0 -1 40 2.9021450318396091e-03</internalNodes>
          <leafValues>
            -2.9933512210845947e-01 5.3997671604156494e-01</leafValues></_>
        <_>
          <internalNodes>
            0 -1 60 2.4168260279111564e-04</internalNodes>
          <leafValues>
            2.1472014486789703e-01 -7.6154702901840210e-01</leafValues></_>
        <_>
          <internalNodes>
            0 -1 57 -3.8325244095176458e-03</internalNodes>
          <leafValues>
            -7.0517140626907349e-01 2.1698729693889618e-01</leafValues></_>
        <_>
          <internalNodes>
            0 -1 24 -1.4578879345208406e-03</internalNodes>
          <leafValues>
            -8.7374836206436157e-01 1.6390615701675415e-01</leafValues></_></weakClassifiers></_>
    <!-- stage 7 -->
    <_>
      <maxWeakCount>10</maxWeakCount>
      <stageThreshold>-8.7403607368469238e-01</stageThreshold>
      <weakClassifiers>
        <_>
          <internalNodes>
            0 -1 53 1.0028153657913208e-02</internalNodes>
          <leafValues>
            -3.9365452527999878e-01 5.7625949382781982e-01</leafValues></_>
        <_>
          <internalNodes>
            0 -1 35 -1.1199105065315962e-03</internalNodes>
          <leafValues>
            5.0256615877151489e-01 -3.6426359415054321e-01</leafValues></_>
        <_>
          <internalNodes>
            0 -1 16 -2.0548347383737564e-03</internalNodes>
          <leafValues>
            5.5325144529342651e-01 -3.0139407515525818e-01</leafValues></_>
        <_>
          <internalNodes>
            0 -1 0 1.2536163441836834e-02</internalNodes>
          <leafValues>
            -2.0865435898303986e-01 7.4681407213211060e-01</leafValues></_>
        <_>
          <internalNodes>
            0 -1 3 -1.1158834677189589e-03</internalNodes>
          <leafValues>
            4.3516370654106140e-01 -3.7989765405654907e-01</leafValues></_>
        <_>
          <internalNodes>
            0 -1 31 1.3642045669257641e-03</internalNodes>
          <leafValues>
            2.4825802445411682e-01 -8.7635731697082520e-01</leafValues></_>
        <_>
          <internalNodes>
            0 -1 7 2.3841213434934616e-02</internalNodes>
          <leafValues>
            1.7028331756591797e-01 -8.2517129182815552e-01</leafValues></_>
        <_>
          <internalNodes>
            0 -1 19 6.5048970282077789e-04</internalNodes>
          <leafValues>
            -7.6518487930297852e-01 2.0173655450344086e-01</leafValues></_>
        <_>
          <internalNodes>
            0 -1 58 -1.4968895120546222e-03</internalNodes>
          <leafValues>
            -7.6586538553237915e-01 1.7454372346401215e-01</leafValues></_>
        <_>
          <internalNodes>
            0 -1 30 -4.8288650810718536e-02</internalNodes>
          <leafValues>
            -8.7640619277954102e-01 1.5640719234943390e-01</leafValues></_></weakClassifiers></_>
    <!-- stage 8 -->
    <_>
      <maxWeakCount>9</maxWeakCount>
      <stageThreshold>-8.6029374599456787e-01</stageThreshold>
      <weakClassifiers>
        <_>
          <internalNodes>
            0 -1 28 -2.9912618920207024e-03</internalNodes>
          <leafValues>
            6.1266571283340454e-01 -3.5244160890579224e-01</leafValues></_>
        <_>
          <internalNodes>
            0 -1 8 2.3514544591307640e-03</internalNodes>
          <leafValues>
            -4.0208485722541809e-01 4.5589908957481384e-01</leafValues></_>
        <_>
          <internalNodes>
            0 -1 42 -1.8770743627101183e-03</internalNodes>
          <leafValues>
            5.6465852260589600e-01 -3.1155246496200562e-01</leafValues></_>
        <_>
          <internalNodes>
            0 -1 23 7.0832611527293921e-05</internalNodes>
          <leafValues>
            -4.2187812924385071e-01 4.0489396452903748e-01</leafValues></_>
        <_>
          <internalNodes>
            0 -1 47 4.0071143303066492e-04</internalNodes>
          <leafValues>
            1.8221810460090637e-01 -7.4712961912155151e-01</leafValues></_>
        <_>
          <internalNodes>
            0 -1 61 -1.9256058149039745e-03</internalNodes>
          <leafValues>
            4.7927278280258179e-01 -3.2779067754745483e-01</leafValues></_>
        <_>
          <internalNodes>
            0 -1 62 5.9956191107630730e-03</internalNodes>
          <leafValues>
            -3.0837842822074890e-01 5.5696886777877808e-01</leafValues></_>
        <_>
          <internalNodes>
            0 -1 6 -2.9149588197469711e-02</internalNodes>
          <leafValues>
            -8.9648109674453735e-01 2.0881813764572144e-01</leafValues></_>
        <_>
          <internalNodes>
            0 -1 5 5.9154380112886429e-02</internalNodes>
          <leafValues>
            1.6830837726593018e-01 -7.5141853094100952e-01</leafValues></_></weakClassifiers></_></stages>
  <features>
    <_>
      <rects>
        <_>
          0 6 2 7 -1.</_>
        <_>
          1 6 1 7 2.</_></rects>
      <tilted>0</tilted></_>
    <_>
      <rects>
        <_>
          0 8 2 5 -1.</_>
        <_>
          1 8 1 5 2.</_></rects>
      <tilted>0</tilted></_>
    <_>
      <rects>
        <_>
          0 9 3 3 -1.</_>
        <_>
          1 9 1 3 3.</_></rects>
      <tilted>0</tilted></_>
    <_>
      <rects>
        <_>
          0 10 3 1 -1.</_>
        <_>
          1 10 1 1 3.</_></rects>
      <tilted>0</tilted></_>
    <_>
      <rects>
        <_>
          1 10 3 1 -1.</_>
        <_>
          2 10 1 1 3.</_></rects>
      <tilted>0</tilted></_>
    <_>
      <rects>
        <_>
          2 9 14 6 -1.</_>
        <_>
          9 9 7 6 2.</_></rects>
      <tilted>0</tilted></_>
    <_>
      <rects>
        <_>
          3 6 8 9 -1.</_>
        <_>
          7 6 4 9 2.</_></rects>
      <tilted>0</tilted></_>
    <_>
      <rects>
        <_>
          3 6 16 8 -1.</_>
        <_>
          3 10 16 4 2.</_></rects>
      <tilted>0</tilted></_>
    <_>
      <rects>
        <_>
          3 12 4 4 -1.</_>
        <_>
          3 12 2 2 2.</_>
        <_>
          5 14 2 2 2.</_></rects>
      <tilted>0</tilted></_>
    <_>
      <rects>
        <_>
          3 13 2 1 -1.</_>
        <_>
          4 13 1 1 2.</_></rects>
      <tilted>0</tilted></_>
    <_>
      <rects>
        <_>
          4 7 10 10 -1.</_>
        <_>
          4 7 5 5 2.</_>
        <_>
          9 12 5 5 2.</_></rects>
      <tilted>0</tilted></_>
    <_>
      <rects>
        <_>
          4 9 6 2 -1.</_>
        <_>
          6 9 2 2 3.</_></rects>
      <tilted>0</tilted></_>
    <_>
      <rects>
        <_>
          4 11 6 4 -1.</_>
        <_>
          4 11 3 2 2.</_>
        <_>
          7 13 3 2 2.</_></rects>
      <tilted>0</tilted></_>
    <_>
      <rects>
        <_>
          4 12 3 6 -1.</_>
        <_>
          4 14 3 2 3.</_></rects>
      <tilted>0</tilted></_>
    <_>
      <rects>
        <_>
          6 2 7 6 -1.</_>
        <_>
          6 4 7 2 3.</_></rects>
      <tilted>0</tilted></_>
    <_>
      <rects>
        <_>
          6 2 8 6 -1.</_>
        <_>
          6 4 8 2 3.</_></rects>
      <tilted>0</tilted></_>
    <_>
      <rects>
        <_>
          6 4 2 2 -1.</_>
        <_>
          6 5 2 1 2.</_></rects>
      <tilted>0</tilted></_>
    <_>
      <rects>
        <_>
          6 4 3 12 -1.</_>
        <_>
          6 10 3 6 2.</_></rects>
      <tilted>0</tilted></_>
    <_>
      <rects>
        <_>
          6 8 8 1 -1.</_>
        <_>
          10 8 4 1 2.</_></rects>
      <tilted>0</tilted></_>
    <_>
      <rects>
        <_>
          6 8 8 2 -1.</_>
        <_>
          10 8 4 2 2.</_></rects>
      <tilted>0</tilted></_>
    <_>
      <rects>
        <_>
          6 9 12 5 -1.</_>
        <_>
          12 9 6 5 2.</_></rects>
      <tilted>0</tilted></_>
    <_>
      <rects>
        <_>
          6 13 6 6 -1.</_>
        <_>
          6 15 6 2 3.</_></rects>
      <tilted>0</tilted></_>
    <_>
      <rects>
        <_>
          7 1 4 3 -1.</_>
        <_>
          7 2 4 1 3.</_></rects>
      <tilted>0</tilted></_>
    <_>
      <rects>
        <_>
          7 7 2 2 -1.</_>
        <_>
          7 7 1 1 2.</_>
        <_>
          8 8 1 1 2.</_></rects>
      <tilted>0</tilted></_>
    <_>
      <rects>
        <_>
          7 7 1 4 -1.</_>
        <_>
          7 9 1 2 2.</_></rects>
      <tilted>0</tilted></_>
    <_>
      <rects>
        <_>
          7 7 2 4 -1.</_>
        <_>
          7 9 2 2 2.</_></rects>
      <tilted>0</tilted></_>
    <_>
      <rects>
        <_>
          7 7 6 2 -1.</_>
        <_>
          10 7 3 2 2.</_></rects>
      <tilted>0</tilted></_>
    <_>
      <rects>
        <_>
          7 7 8 2 -1.</_>
        <_>
          11 7 4 2 2.</_></rects>
      <tilted>0</tilted></_>
    <_>
      <rects>
        <_>
          7 8 4 4 -1.</_>
        <_>
          9 8 2 4 2.</_></rects>
      <tilted>0</tilted></_>
    <_>
      <rects>
        <_>
          8 3 7 2 -1.</_>
        <_>
          8 4 7 1 2.</_></rects>
      <tilted>0</tilted></_>
    <_>
      <rects>
        <_>
          8 3 8 10 -1.</_>
        <_>
          8 8 8 5 2.</_></rects>
      <tilted>0</tilted></_>
    <_>
      <rects>
        <_>
          8 7 4 1 -1.</_>
        <_>
          10 7 2 1 2.</_></rects>
      <tilted>0</tilted></_>
    <_>
      <rects>
        <_>
          8 7 6 2 -1.</_>
        <_>
          10 7 2 2 3.</_></rects>
      <tilted>0</tilted></_>
    <_>
      <rects>
        <_>
          8 7 3 4 -1.</_>
        <_>
          8 9 3 2 2.</_></rects>
      <tilted>0</tilted></_>
    <_>
      <rects>
        <_>
          8 7 7 10 -1.</_>
        <_>
          8 12 7 5 2.</_></rects>
      <tilted>0</tilted></_>
    <_>
      <rects>
        <_>
          8 9 2 2 -1.</_>
        <_>
          9 9 1 2 2.</_></rects>
      <tilted>0</tilted></_>
    <_>
      <rects>
        <_>
          8 10 2 2 -1.</_>
        <_>
          8 11 2 1 2.</_></rects>
      <tilted>0</tilted></_>
    <_>
      <rects>
        <_>
          8 13 6 6 -1.</_>
        <_>
          8 15 6 2 3.</_></rects>
      <tilted>0</tilted></_>
    <_>
      <rects>
        <_>
          9 2 3 3 -1.</_>
        <_>
          9 3 3 1 3.</_></rects>
      <tilted>0</tilted></_>
    <_>
      <rects>
        <_>
          9 3 3 9 -1.</_>
        <_>
          9 6 3 3 3.</_></rects>
      <tilted>0</tilted></_>
    <_>
      <rects>
        <_>
          9 4 3 3 -1.</_>
        <_>
          9 5 3 1 3.</_></rects>
      <tilted>0</tilted></_>
    <_>
      <rects>
        <_>
          9 11 1 3 -1.</_>
        <_>
          9 12 1 1 3.</_></rects>
      <tilted>0</tilted></_>
    <_>
      <rects>
        <_>
          10 1 1 3 -1.</_>
        <_>
          10 2 1 1 3.</_></rects>
      <tilted>0</tilted></_>
    <_>
      <rects>
        <_>
          10 4 4 9 -1.</_>
        <_>
          10 7 4 3 3.</_></rects>
      <tilted>0</tilted></_>
    <_>
      <rects>
        <_>
          10 6 2 2 -1.</_>
        <_>
          10 7 2 1 2.</_></rects>
      <tilted>0</tilted></_>
    <_>
      <rects>
        <_>
          10 7 4 1 -1.</_>
        <_>
          12 7 2 1 2.</_></rects>
      <tilted>0</tilted></_>
    <_>
      <rects>
        <_>
          11 6 2 3 -1.</_>
        <_>
          12 6 1 3 2.</_></rects>
      <tilted>0</tilted></_>
    <_>
      <rects>
        <_>
          11 7 2 2 -1.</_>
        <_>
          11 8 2 1 2.</_></rects>
      <tilted>0</tilted></_>
    <_>
      <rects>
        <_>
          11 8 2 1 -1.</_>
        <_>
          12 8 1 1 2.</_></rects>
      <tilted>0</tilted></_>
    <_>
      <rects>
        <_>
          11 8 3 2 -1.</_>
        <_>
          11 9 3 1 2.</_></rects>
      <tilted>0</tilted></_>
    <_>
      <rects>
        <_>
          12 5 4 2 -1.</_>
        <_>
          12 5 2 1 2.</_>
        <_>
          14 6 2 1 2.</_></rects>
      <tilted>0</tilted></_>
    <_>
      <rects>
        <_>
          12 7 2 2 -1.</_>
        <_>
          13 7 1 2 2.</_></rects>
      <tilted>0</tilted></_>
    <_>
      <rects>
        <_>
          12 9 2 1 -1.</_>
        <_>
          13 9 1 1 2.</_></rects>
      <tilted>0</tilted></_>
    <_>
      <rects>
        <_>
          12 10 6 6 -1.</_>
        <_>
          14 10 2 6 3.</_></rects>
      <tilted>0</tilted></_>
    <_>
      <rects>
        <_>
          12 13 6 3 -1.</_>
        <_>
          14 13 2 3 3.</_></rects>
      <tilted>0</tilted></_>
    <_>
      <rects>
        <_>
          13 4 3 2 -1.</_>
        <_>
          13 5 3 1 2.</_></rects>
      <tilted>0</tilted></_>
    <_>
      <rects>
        <_>
          13 5 2 9 -1.</_>
        <_>
          13 8 2 3 3.</_></rects>
      <tilted>0</tilted></_>
    <_>
      <rects>
        <_>
          14 9 1 8 -1.</_>
        <_>
          14 13 1 4 2.</_></rects>
      <tilted>0</tilted></_>
    <_>
      <rects>
        <_>
          14 12 4 1 -1.</_>
        <_>
          16 12 2 1 2.</_></rects>
      <tilted>0</tilted></_>
    <_>
      <rects>
        <_>
          15 10 3 4 -1.</_>
        <_>
          15 12 3 2 2.</_></rects>
      <tilted>0</tilted></_>
    <_>
      <rects>
        <_>
          15 13 2 2 -1.</_>
        <_>
          15 14 2 1 2.</_></rects>
      <tilted>0</tilted></_>
    <_>
      <rects>
        <_>
          16 3 1 6 -1.</_>
        <_>
          16 6 1 3 2.</_></rects>
      <tilted>0</tilted></_>
    <_>
      <rects>
        <_>
          16 7 3 5 -1.</_>
        <_>
          17 7 1 5 3.</_></rects>
      <tilted>0</tilted></_>
    <_>
      <rects>
        <_>
          16 11 2 2 -1.</_>
        <_>
          16 11 1 1 2.</_>
        <_>
          17 12 1 1 2.</_></rects>
      <tilted>0</tilted></_>
    <_>
      <rects>
        <_>
          17 11 1 2 -1.</_>
        <_>
          17 12 1 1 2.</_></rects>
      <tilted>0</tilted></_>
    <_>
      <rects>
        <_>
          18 8 2 3 -1.</_>
        <_>
          19 8 1 3 2.</_></rects>
      <tilted>0</tilted></_>
    <_>
      <rects>
        <_>
          18 10 2 2 -1.</_>
        <_>
          19 10 1 2 2.</_></rects>
      <tilted>0</tilted></_></features></cascade>
</opencv_storage>
