<?xml version="1.0"?>
<opencv_storage>
<stage8>
  <maxWeakCount>9</maxWeakCount>
  <stageThreshold>-8.6029374599456787e-01</stageThreshold>
  <weakClassifiers>
    <_>
      <internalNodes>
        0 -1 48271 -2.9912618920207024e-03</internalNodes>
      <leafValues>
        6.1266571283340454e-01 -3.5244160890579224e-01</leafValues></_>
    <_>
      <internalNodes>
        0 -1 27066 2.3514544591307640e-03</internalNodes>
      <leafValues>
        -4.0208485722541809e-01 4.5589908957481384e-01</leafValues></_>
    <_>
      <internalNodes>
        0 -1 58968 -1.8770743627101183e-03</internalNodes>
      <leafValues>
        5.6465852260589600e-01 -3.1155246496200562e-01</leafValues></_>
    <_>
      <internalNodes>
        0 -1 47924 7.0832611527293921e-05</internalNodes>
      <leafValues>
        -4.2187812924385071e-01 4.0489396452903748e-01</leafValues></_>
    <_>
      <internalNodes>
        0 -1 64368 4.0071143303066492e-04</internalNodes>
      <leafValues>
        1.8221810460090637e-01 -7.4712961912155151e-01</leafValues></_>
    <_>
      <internalNodes>
        0 -1 75592 -1.9256058149039745e-03</internalNodes>
      <leafValues>
        4.7927278280258179e-01 -3.2779067754745483e-01</leafValues></_>
    <_>
      <internalNodes>
        0 -1 76045 5.9956191107630730e-03</internalNodes>
      <leafValues>
        -3.0837842822074890e-01 5.5696886777877808e-01</leafValues></_>
    <_>
      <internalNodes>
        0 -1 25124 -2.9149588197469711e-02</internalNodes>
      <leafValues>
        -8.9648109674453735e-01 2.0881813764572144e-01</leafValues></_>
    <_>
      <internalNodes>
        0 -1 19855 5.9154380112886429e-02</internalNodes>
      <leafValues>
        1.6830837726593018e-01 -7.5141853094100952e-01</leafValues></_></weakClassifiers></stage8>
</opencv_storage>
